<?xml version="1.0"?>
<opencv_storage>
<stage14>
  <maxWeakCount>6</maxWeakCount>
  <stageThreshold>-7.5620037317276001e-01</stageThreshold>
  <weakClassifiers>
    <_>
      <internalNodes>
        0 -1 77310 -2.1810946054756641e-03</internalNodes>
      <leafValues>
        5.6363636255264282e-01 -4.2222222685813904e-01</leafValues></_>
    <_>
      <internalNodes>
        0 -1 54042 -5.8162273489870131e-05</internalNodes>
      <leafValues>
        -5.9213298559188843e-01 4.2415267229080200e-01</leafValues></_>
    <_>
      <internalNodes>
        0 -1 63500 -3.6267512477934361e-03</internalNodes>
      <leafValues>
        3.9185312390327454e-01 -6.3602668046951294e-01</leafValues></_>
    <_>
      <internalNodes>
        0 -1 58229 -6.2264261941891164e-05</internalNodes>
      <leafValues>
        -7.4481296539306641e-01 3.8425457477569580e-01</leafValues></_>
    <_>
      <internalNodes>
        0 -1 42900 5.8276054915040731e-05</internalNodes>
      <leafValues>
        2.9083725810050964e-01 -7.1652662754058838e-01</leafValues></_>
    <_>
      <internalNodes>
        0 -1 67083 -1.6899437468964607e-04</internalNodes>
      <leafValues>
        -7.0342832803726196e-01 3.4178271889686584e-01</leafValues></_></weakClassifiers></stage14>
</opencv_storage>
